{
    "fc1.weight": [
        [
            -0.014592099003493786,
            0.16791610419750214,
            -0.14462006092071533,
            -0.12432904541492462,
            0.05250348895788193,
            -0.19786222279071808,
            -0.32332196831703186,
            0.04370424896478653,
            0.07461375743150711,
            0.08075877279043198,
            -0.05681651085615158,
            0.0359126478433609,
            -0.0036639347672462463
        ],
        [
            0.12150408327579498,
            0.0067052594386041164,
            0.17053718864917755,
            -0.08444797992706299,
            0.33842456340789795,
            0.2518843412399292,
            -0.14344452321529388,
            0.17860127985477448,
            0.16208522021770477,
            0.027569133788347244,
            -0.09570322930812836,
            0.21686895191669464,
            0.01056904811412096
        ],
        [
            -0.1863919496536255,
            0.10066726058721542,
            0.02875303290784359,
            0.1350756287574768,
            -0.145023375749588,
            0.1715320199728012,
            0.23421046137809753,
            0.036090023815631866,
            -0.17714253067970276,
            0.20279112458229065,
            0.06542178988456726,
            0.04452542960643768,
            -0.012626525945961475
        ],
        [
            0.019652066752314568,
            -0.14645040035247803,
            -0.20082810521125793,
            -0.05200960859656334,
            0.19766981899738312,
            -0.3518052399158478,
            0.07114796340465546,
            0.03836894407868385,
            0.19675682485103607,
            0.2147955298423767,
            -0.09984579682350159,
            -0.04105225205421448,
            0.1969595104455948
        ],
        [
            0.08051521331071854,
            0.1775020807981491,
            0.02042987570166588,
            0.02668055333197117,
            -0.0017585571622475982,
            -0.04020360857248306,
            0.1445276290178299,
            0.057169150561094284,
            -0.04747898504137993,
            0.19003790616989136,
            0.14544261991977692,
            0.16011977195739746,
            0.10638630390167236
        ],
        [
            0.13159003853797913,
            -0.0864228680729866,
            0.05656808242201805,
            -0.15864558517932892,
            -0.1070542111992836,
            -0.2902146279811859,
            -0.15582413971424103,
            -0.14433297514915466,
            0.17746871709823608,
            -0.028588855639100075,
            0.4248718023300171,
            -0.005727479699999094,
            0.2934068441390991
        ],
        [
            0.06552223116159439,
            -0.23170946538448334,
            0.03339413180947304,
            -0.032833702862262726,
            0.17781685292720795,
            -0.26271018385887146,
            0.05293777212500572,
            0.15724708139896393,
            0.09560076892375946,
            0.033378299325704575,
            0.310638964176178,
            0.13374343514442444,
            -0.15453600883483887
        ],
        [
            -0.1086551770567894,
            0.16604572534561157,
            0.20416755974292755,
            0.15323621034622192,
            0.0998903438448906,
            -0.12467136979103088,
            -0.1370941549539566,
            -0.3056192994117737,
            0.24986660480499268,
            0.11355409026145935,
            -0.19070258736610413,
            0.14394302666187286,
            0.15503597259521484
        ],
        [
            0.33881741762161255,
            0.09125898033380508,
            -0.15551511943340302,
            0.2585209310054779,
            -0.166929692029953,
            -0.1676626354455948,
            0.2738736867904663,
            -0.21123532950878143,
            -0.022225648164749146,
            -0.2168380171060562,
            -0.05378027260303497,
            0.25336939096450806,
            0.17256440222263336
        ],
        [
            -0.11103662103414536,
            -0.0840228796005249,
            -0.18089359998703003,
            -0.17089270055294037,
            0.23796077072620392,
            0.03208327293395996,
            -0.04937530681490898,
            0.0633777529001236,
            -0.07957644760608673,
            -0.11458727717399597,
            0.3181571662425995,
            0.009906034916639328,
            0.027556514367461205
        ],
        [
            0.3524160385131836,
            -0.09598029404878616,
            0.07315051555633545,
            0.2608141601085663,
            0.20739901065826416,
            0.020305776968598366,
            -0.2006416916847229,
            -0.40552809834480286,
            -0.03944842889904976,
            -0.2162170559167862,
            -0.19519922137260437,
            0.23313196003437042,
            -0.03824977949261665
        ],
        [
            0.38150471448898315,
            -0.25590184330940247,
            0.17039445042610168,
            0.19317986071109772,
            -0.36333411931991577,
            0.010076196864247322,
            -0.0685802549123764,
            0.11876464635133743,
            -0.25065332651138306,
            0.20580972731113434,
            -0.38151946663856506,
            0.2572133541107178,
            0.10869058966636658
        ],
        [
            0.0014063619310036302,
            -0.14090727269649506,
            0.24199093878269196,
            -0.22064955532550812,
            0.08996221423149109,
            0.06010109558701515,
            -0.21919190883636475,
            -0.02433927170932293,
            -0.26189327239990234,
            0.0375487394630909,
            -0.14364838600158691,
            -0.2916586697101593,
            0.028468145057559013
        ],
        [
            0.047468699514865875,
            0.2659011781215668,
            0.11261054128408432,
            -0.06791174411773682,
            -0.19773763418197632,
            -0.016223464161157608,
            0.09499672055244446,
            0.2260131537914276,
            -0.1759096384048462,
            -0.05517575517296791,
            -0.1704343855381012,
            -0.12200392782688141,
            -0.26406770944595337
        ],
        [
            0.1073058694601059,
            0.17213872075080872,
            -0.1275159865617752,
            -0.07155892997980118,
            -0.07694444805383682,
            0.253812700510025,
            0.01435760222375393,
            -0.022471308708190918,
            0.02619604766368866,
            0.05378604307770729,
            -0.09326738119125366,
            -0.10204119235277176,
            -0.296522855758667
        ],
        [
            -0.13600392639636993,
            -0.2950019836425781,
            0.09844428300857544,
            -0.2615888714790344,
            -0.09502511471509933,
            -0.3275104761123657,
            -0.03985239192843437,
            -0.05120334029197693,
            0.24876947700977325,
            -0.15117383003234863,
            0.14567796885967255,
            0.24990646541118622,
            0.2655338644981384
        ],
        [
            -0.21192890405654907,
            -0.03594820573925972,
            -0.17583179473876953,
            -0.1513989120721817,
            0.17698822915554047,
            -0.37622731924057007,
            -0.16120116412639618,
            0.02952164225280285,
            -0.1707245111465454,
            -0.3122914135456085,
            0.029674993827939034,
            0.01319925393909216,
            0.018187090754508972
        ],
        [
            0.14387661218643188,
            -0.17254450917243958,
            0.16515205800533295,
            -0.19725438952445984,
            -0.2214599996805191,
            0.041330818086862564,
            -0.02249683067202568,
            -0.08169189840555191,
            -0.1489076018333435,
            -0.25574684143066406,
            -0.29398685693740845,
            0.04049273580312729,
            -0.21163377165794373
        ],
        [
            0.025083407759666443,
            0.3350170850753784,
            -0.11325736343860626,
            0.23873139917850494,
            -0.14169588685035706,
            0.09036515653133392,
            -0.09369663149118423,
            -0.30183738470077515,
            -0.2517685294151306,
            0.05067124217748642,
            -0.16227778792381287,
            0.10320663452148438,
            -0.24561966955661774
        ],
        [
            -0.22361980378627777,
            0.0836850106716156,
            -0.1733720451593399,
            -0.10200082510709763,
            0.2510282099246979,
            -0.33166757225990295,
            -0.09141446650028229,
            0.2768268883228302,
            0.13238859176635742,
            -0.18539004027843475,
            0.08854569494724274,
            0.043027352541685104,
            0.1637481451034546
        ],
        [
            -0.254107803106308,
            -0.32898104190826416,
            0.29520347714424133,
            0.21071502566337585,
            0.08231166750192642,
            -0.2743316888809204,
            0.2859767973423004,
            0.18714797496795654,
            0.2360837608575821,
            -0.4042088985443115,
            0.19033750891685486,
            0.13958875834941864,
            0.35000208020210266
        ],
        [
            -0.13847552239894867,
            -0.1133410707116127,
            0.13312140107154846,
            -0.03207783401012421,
            0.20018887519836426,
            -0.3021974563598633,
            0.1537313461303711,
            0.14370903372764587,
            0.08272036910057068,
            -0.09583895653486252,
            0.2488742470741272,
            0.18415604531764984,
            0.2670651972293854
        ],
        [
            -0.2273516207933426,
            -0.14587385952472687,
            0.09890888631343842,
            0.3142739534378052,
            -0.06138470768928528,
            -0.1315288543701172,
            -0.01668686792254448,
            0.17105022072792053,
            -0.2395208179950714,
            -0.18176932632923126,
            -0.047604046761989594,
            0.2806939482688904,
            0.18736819922924042
        ],
        [
            0.3025531768798828,
            0.25107064843177795,
            0.16357795894145966,
            -0.20494866371154785,
            -0.1727530062198639,
            -0.07810384780168533,
            -0.3435358703136444,
            -0.141037717461586,
            -0.1221860870718956,
            -0.29402899742126465,
            -0.33621343970298767,
            0.10289815813302994,
            0.14119525253772736
        ],
        [
            -0.12462960928678513,
            -0.05241560563445091,
            -0.2866702079772949,
            0.06286123394966125,
            0.2025548815727234,
            0.19357667863368988,
            0.28303948044776917,
            -0.4638082683086395,
            0.0873384177684784,
            -0.18678928911685944,
            0.10516845434904099,
            0.08265850692987442,
            0.24031171202659607
        ],
        [
            -0.07279851287603378,
            0.06105789542198181,
            0.06669945269823074,
            -0.18279071152210236,
            0.028250915929675102,
            0.029805440455675125,
            -0.3753480613231659,
            -0.00832380447536707,
            -0.15820246934890747,
            0.1114836186170578,
            -0.3190484344959259,
            -0.0473097562789917,
            -0.3526875078678131
        ],
        [
            -0.01660567708313465,
            -0.27375492453575134,
            0.3733973205089569,
            -0.09224358946084976,
            0.28572094440460205,
            -0.3229350447654724,
            0.16131380200386047,
            0.028750529512763023,
            0.21386276185512543,
            -0.35059651732444763,
            0.008690466172993183,
            0.3312097191810608,
            0.1258528083562851
        ],
        [
            0.018171975389122963,
            0.05991712212562561,
            0.12796038389205933,
            0.19887888431549072,
            -0.11620056629180908,
            0.12747064232826233,
            -0.21041975915431976,
            -0.43218713998794556,
            -0.09635105729103088,
            -0.30072930455207825,
            -0.04100654274225235,
            -0.16283531486988068,
            -0.07713363319635391
        ],
        [
            -0.037771131843328476,
            -0.16905367374420166,
            0.1135425791144371,
            0.2911994159221649,
            -0.1554921418428421,
            -0.4101259708404541,
            0.15354487299919128,
            0.21465973556041718,
            -0.10363832116127014,
            -0.007687525358051062,
            0.07314199954271317,
            0.09991484880447388,
            0.2580833435058594
        ],
        [
            -0.32707661390304565,
            -0.14633283019065857,
            -0.20497389137744904,
            0.2702758312225342,
            -0.10655388981103897,
            0.15930774807929993,
            0.15311019122600555,
            0.23180212080478668,
            0.1696099489927292,
            -0.09976974129676819,
            0.35337674617767334,
            -0.1798224002122879,
            0.12232083082199097
        ],
        [
            0.47000735998153687,
            -0.23403583467006683,
            0.2084127813577652,
            0.14052444696426392,
            0.15645714104175568,
            0.08550209552049637,
            -0.1585860699415207,
            -0.12084569036960602,
            0.07237088680267334,
            -0.11815354973077774,
            -0.31990423798561096,
            -0.08384294807910919,
            0.025836287066340446
        ],
        [
            -0.12316449731588364,
            -0.2204156070947647,
            0.28656357526779175,
            -0.2677886188030243,
            0.3780152499675751,
            -0.3515973389148712,
            0.06669256836175919,
            0.21044260263442993,
            -0.02389809675514698,
            0.09299923479557037,
            0.07550513744354248,
            0.13578665256500244,
            -0.12545770406723022
        ]
    ],
    "fc1.bias": [
        0.09795773029327393,
        0.09236370772123337,
        0.2025442123413086,
        0.25372663140296936,
        -0.32190635800361633,
        0.18748772144317627,
        -0.051697324961423874,
        -0.059623561799526215,
        -0.00930715911090374,
        -0.19438429176807404,
        0.1608155220746994,
        -0.05558105930685997,
        0.07073766738176346,
        0.27477529644966125,
        -0.15533515810966492,
        0.08776320517063141,
        -0.2743041515350342,
        0.04298585280776024,
        0.01624312251806259,
        0.11141496896743774,
        -0.16460657119750977,
        0.1413198858499527,
        0.18162745237350464,
        0.32696855068206787,
        -0.10569839924573898,
        0.22692488133907318,
        -0.02683156169950962,
        0.11277327686548233,
        -0.276664674282074,
        -0.23106269538402557,
        -0.22405925393104553,
        0.20520982146263123
    ],
    "fc3.weight": [
        [
            -0.020982136949896812,
            0.1538420021533966,
            -0.00935804657638073,
            0.17255376279354095,
            0.0460461787879467,
            0.051120489835739136,
            0.13051016628742218,
            -0.16581469774246216,
            -0.16292446851730347,
            0.08481308817863464,
            -0.11351895332336426,
            -0.17872796952724457,
            -0.08666937798261642,
            -0.11206109821796417,
            -0.08110275864601135,
            0.09834049642086029,
            0.13700687885284424,
            -0.18145404756069183,
            -0.22077800333499908,
            0.14688196778297424,
            0.2689577341079712,
            0.14587481319904327,
            0.12528802454471588,
            -0.11769726872444153,
            -0.09742307662963867,
            -0.08514861762523651,
            0.25893235206604004,
            -0.29151803255081177,
            0.2810439169406891,
            0.20840375125408173,
            -0.13460922241210938,
            0.3141532838344574
        ]
    ],
    "fc3.bias": [
        -0.11734702438116074
    ],
    "poly_act.beta": 0.9485346674919128,
    "poly_act.gamma": 0.4713829457759857
}